digraph Tree {
node [shape=box] ;
0 [label="X[1] <= 67.5\ngini = 0.097\nsamples = 2397\nvalue = [2275, 122]"] ;
1 [label="X[1] <= 44.5\ngini = 0.047\nsamples = 1946\nvalue = [1899, 47]"] ;
0 -> 1 [labeldistance=2.5, labelangle=45, headlabel="True"] ;
2 [label="X[7] <= 58.19\ngini = 0.01\nsamples = 993\nvalue = [988, 5]"] ;
1 -> 2 ;
3 [label="X[2] <= 0.5\ngini = 0.095\nsamples = 20\nvalue = [19, 1]"] ;
2 -> 3 ;
4 [label="gini = 0.0\nsamples = 19\nvalue = [19, 0]"] ;
3 -> 4 ;
5 [label="gini = 0.0\nsamples = 1\nvalue = [0, 1]"] ;
3 -> 5 ;
6 [label="X[5] <= 2.5\ngini = 0.008\nsamples = 973\nvalue = [969, 4]"] ;
2 -> 6 ;
7 [label="X[7] <= 83.25\ngini = 0.005\nsamples = 844\nvalue = [842, 2]"] ;
6 -> 7 ;
8 [label="X[7] <= 83.19\ngini = 0.012\nsamples = 321\nvalue = [319, 2]"] ;
7 -> 8 ;
9 [label="X[9] <= 1.5\ngini = 0.006\nsamples = 320\nvalue = [319, 1]"] ;
8 -> 9 ;
10 [label="gini = 0.0\nsamples = 230\nvalue = [230, 0]"] ;
9 -> 10 ;
11 [label="X[8] <= 29.55\ngini = 0.022\nsamples = 90\nvalue = [89, 1]"] ;
9 -> 11 ;
12 [label="gini = 0.0\nsamples = 53\nvalue = [53, 0]"] ;
11 -> 12 ;
13 [label="X[8] <= 30.1\ngini = 0.053\nsamples = 37\nvalue = [36, 1]"] ;
11 -> 13 ;
14 [label="gini = 0.0\nsamples = 1\nvalue = [0, 1]"] ;
13 -> 14 ;
15 [label="gini = 0.0\nsamples = 36\nvalue = [36, 0]"] ;
13 -> 15 ;
16 [label="gini = 0.0\nsamples = 1\nvalue = [0, 1]"] ;
8 -> 16 ;
17 [label="gini = 0.0\nsamples = 523\nvalue = [523, 0]"] ;
7 -> 17 ;
18 [label="X[1] <= 37.5\ngini = 0.031\nsamples = 129\nvalue = [127, 2]"] ;
6 -> 18 ;
19 [label="gini = 0.0\nsamples = 92\nvalue = [92, 0]"] ;
18 -> 19 ;
20 [label="X[1] <= 39.5\ngini = 0.102\nsamples = 37\nvalue = [35, 2]"] ;
18 -> 20 ;
21 [label="X[9] <= 0.5\ngini = 0.32\nsamples = 10\nvalue = [8, 2]"] ;
20 -> 21 ;
22 [label="gini = 0.0\nsamples = 1\nvalue = [0, 1]"] ;
21 -> 22 ;
23 [label="X[9] <= 1.5\ngini = 0.198\nsamples = 9\nvalue = [8, 1]"] ;
21 -> 23 ;
24 [label="gini = 0.0\nsamples = 7\nvalue = [7, 0]"] ;
23 -> 24 ;
25 [label="X[7] <= 86.025\ngini = 0.5\nsamples = 2\nvalue = [1, 1]"] ;
23 -> 25 ;
26 [label="gini = 0.0\nsamples = 1\nvalue = [1, 0]"] ;
25 -> 26 ;
27 [label="gini = 0.0\nsamples = 1\nvalue = [0, 1]"] ;
25 -> 27 ;
28 [label="gini = 0.0\nsamples = 27\nvalue = [27, 0]"] ;
20 -> 28 ;
29 [label="X[7] <= 178.94\ngini = 0.084\nsamples = 953\nvalue = [911, 42]"] ;
1 -> 29 ;
30 [label="X[3] <= 0.5\ngini = 0.065\nsamples = 808\nvalue = [781, 27]"] ;
29 -> 30 ;
31 [label="X[8] <= 32.95\ngini = 0.056\nsamples = 763\nvalue = [741, 22]"] ;
30 -> 31 ;
32 [label="X[8] <= 32.85\ngini = 0.067\nsamples = 547\nvalue = [528, 19]"] ;
31 -> 32 ;
33 [label="X[5] <= 1.0\ngini = 0.064\nsamples = 545\nvalue = [527, 18]"] ;
32 -> 33 ;
34 [label="gini = 0.0\nsamples = 98\nvalue = [98, 0]"] ;
33 -> 34 ;
35 [label="X[8] <= 27.25\ngini = 0.077\nsamples = 447\nvalue = [429, 18]"] ;
33 -> 35 ;
36 [label="X[8] <= 21.25\ngini = 0.04\nsamples = 194\nvalue = [190, 4]"] ;
35 -> 36 ;
37 [label="X[8] <= 21.15\ngini = 0.128\nsamples = 29\nvalue = [27, 2]"] ;
36 -> 37 ;
38 [label="X[1] <= 48.5\ngini = 0.071\nsamples = 27\nvalue = [26, 1]"] ;
37 -> 38 ;
39 [label="X[7] <= 74.135\ngini = 0.32\nsamples = 5\nvalue = [4, 1]"] ;
38 -> 39 ;
40 [label="gini = 0.0\nsamples = 1\nvalue = [0, 1]"] ;
39 -> 40 ;
41 [label="gini = 0.0\nsamples = 4\nvalue = [4, 0]"] ;
39 -> 41 ;
42 [label="gini = 0.0\nsamples = 22\nvalue = [22, 0]"] ;
38 -> 42 ;
43 [label="X[9] <= 0.5\ngini = 0.5\nsamples = 2\nvalue = [1, 1]"] ;
37 -> 43 ;
44 [label="gini = 0.0\nsamples = 1\nvalue = [0, 1]"] ;
43 -> 44 ;
45 [label="gini = 0.0\nsamples = 1\nvalue = [1, 0]"] ;
43 -> 45 ;
46 [label="X[9] <= 1.5\ngini = 0.024\nsamples = 165\nvalue = [163, 2]"] ;
36 -> 46 ;
47 [label="gini = 0.0\nsamples = 119\nvalue = [119, 0]"] ;
46 -> 47 ;
48 [label="X[1] <= 57.5\ngini = 0.083\nsamples = 46\nvalue = [44, 2]"] ;
46 -> 48 ;
49 [label="gini = 0.0\nsamples = 28\nvalue = [28, 0]"] ;
48 -> 49 ;
50 [label="X[1] <= 59.5\ngini = 0.198\nsamples = 18\nvalue = [16, 2]"] ;
48 -> 50 ;
51 [label="gini = 0.0\nsamples = 1\nvalue = [0, 1]"] ;
50 -> 51 ;
52 [label="X[1] <= 60.5\ngini = 0.111\nsamples = 17\nvalue = [16, 1]"] ;
50 -> 52 ;
53 [label="X[8] <= 26.0\ngini = 0.444\nsamples = 3\nvalue = [2, 1]"] ;
52 -> 53 ;
54 [label="gini = 0.0\nsamples = 2\nvalue = [2, 0]"] ;
53 -> 54 ;
55 [label="gini = 0.0\nsamples = 1\nvalue = [0, 1]"] ;
53 -> 55 ;
56 [label="gini = 0.0\nsamples = 14\nvalue = [14, 0]"] ;
52 -> 56 ;
57 [label="X[8] <= 27.55\ngini = 0.105\nsamples = 253\nvalue = [239, 14]"] ;
35 -> 57 ;
58 [label="X[1] <= 60.0\ngini = 0.375\nsamples = 12\nvalue = [9, 3]"] ;
57 -> 58 ;
59 [label="X[9] <= 1.5\ngini = 0.198\nsamples = 9\nvalue = [8, 1]"] ;
58 -> 59 ;
60 [label="gini = 0.0\nsamples = 7\nvalue = [7, 0]"] ;
59 -> 60 ;
61 [label="X[7] <= 80.145\ngini = 0.5\nsamples = 2\nvalue = [1, 1]"] ;
59 -> 61 ;
62 [label="gini = 0.0\nsamples = 1\nvalue = [1, 0]"] ;
61 -> 62 ;
63 [label="gini = 0.0\nsamples = 1\nvalue = [0, 1]"] ;
61 -> 63 ;
64 [label="X[0] <= 0.5\ngini = 0.444\nsamples = 3\nvalue = [1, 2]"] ;
58 -> 64 ;
65 [label="gini = 0.0\nsamples = 1\nvalue = [1, 0]"] ;
64 -> 65 ;
66 [label="gini = 0.0\nsamples = 2\nvalue = [0, 2]"] ;
64 -> 66 ;
67 [label="X[1] <= 59.5\ngini = 0.087\nsamples = 241\nvalue = [230, 11]"] ;
57 -> 67 ;
68 [label="X[7] <= 62.345\ngini = 0.122\nsamples = 169\nvalue = [158, 11]"] ;
67 -> 68 ;
69 [label="X[7] <= 59.8\ngini = 0.278\nsamples = 12\nvalue = [10, 2]"] ;
68 -> 69 ;
70 [label="gini = 0.0\nsamples = 9\nvalue = [9, 0]"] ;
69 -> 70 ;
71 [label="X[9] <= 1.5\ngini = 0.444\nsamples = 3\nvalue = [1, 2]"] ;
69 -> 71 ;
72 [label="gini = 0.0\nsamples = 2\nvalue = [0, 2]"] ;
71 -> 72 ;
73 [label="gini = 0.0\nsamples = 1\nvalue = [1, 0]"] ;
71 -> 73 ;
74 [label="X[7] <= 165.215\ngini = 0.108\nsamples = 157\nvalue = [148, 9]"] ;
68 -> 74 ;
75 [label="X[5] <= 2.5\ngini = 0.1\nsamples = 152\nvalue = [144, 8]"] ;
74 -> 75 ;
76 [label="X[7] <= 111.085\ngini = 0.127\nsamples = 117\nvalue = [109, 8]"] ;
75 -> 76 ;
77 [label="X[7] <= 110.61\ngini = 0.159\nsamples = 92\nvalue = [84, 8]"] ;
76 -> 77 ;
78 [label="X[1] <= 54.5\ngini = 0.143\nsamples = 90\nvalue = [83, 7]"] ;
77 -> 78 ;
79 [label="X[8] <= 32.0\ngini = 0.185\nsamples = 68\nvalue = [61, 7]"] ;
78 -> 79 ;
80 [label="X[8] <= 31.85\ngini = 0.229\nsamples = 53\nvalue = [46, 7]"] ;
79 -> 80 ;
81 [label="X[7] <= 102.315\ngini = 0.208\nsamples = 51\nvalue = [45, 6]"] ;
80 -> 81 ;
82 [label="X[7] <= 99.64\ngini = 0.25\nsamples = 41\nvalue = [35, 6]"] ;
81 -> 82 ;
83 [label="X[7] <= 93.635\ngini = 0.219\nsamples = 40\nvalue = [35, 5]"] ;
82 -> 83 ;
84 [label="X[2] <= 0.5\ngini = 0.161\nsamples = 34\nvalue = [31, 3]"] ;
83 -> 84 ;
85 [label="X[7] <= 78.235\ngini = 0.117\nsamples = 32\nvalue = [30, 2]"] ;
84 -> 85 ;
86 [label="X[7] <= 78.115\ngini = 0.219\nsamples = 16\nvalue = [14, 2]"] ;
85 -> 86 ;
87 [label="X[1] <= 53.0\ngini = 0.124\nsamples = 15\nvalue = [14, 1]"] ;
86 -> 87 ;
88 [label="gini = 0.0\nsamples = 13\nvalue = [13, 0]"] ;
87 -> 88 ;
89 [label="X[7] <= 73.63\ngini = 0.5\nsamples = 2\nvalue = [1, 1]"] ;
87 -> 89 ;
90 [label="gini = 0.0\nsamples = 1\nvalue = [0, 1]"] ;
89 -> 90 ;
91 [label="gini = 0.0\nsamples = 1\nvalue = [1, 0]"] ;
89 -> 91 ;
92 [label="gini = 0.0\nsamples = 1\nvalue = [0, 1]"] ;
86 -> 92 ;
93 [label="gini = 0.0\nsamples = 16\nvalue = [16, 0]"] ;
85 -> 93 ;
94 [label="X[6] <= 0.5\ngini = 0.5\nsamples = 2\nvalue = [1, 1]"] ;
84 -> 94 ;
95 [label="gini = 0.0\nsamples = 1\nvalue = [1, 0]"] ;
94 -> 95 ;
96 [label="gini = 0.0\nsamples = 1\nvalue = [0, 1]"] ;
94 -> 96 ;
97 [label="X[8] <= 29.9\ngini = 0.444\nsamples = 6\nvalue = [4, 2]"] ;
83 -> 97 ;
98 [label="X[1] <= 53.5\ngini = 0.32\nsamples = 5\nvalue = [4, 1]"] ;
97 -> 98 ;
99 [label="gini = 0.0\nsamples = 3\nvalue = [3, 0]"] ;
98 -> 99 ;
100 [label="X[2] <= 0.5\ngini = 0.5\nsamples = 2\nvalue = [1, 1]"] ;
98 -> 100 ;
101 [label="gini = 0.0\nsamples = 1\nvalue = [0, 1]"] ;
100 -> 101 ;
102 [label="gini = 0.0\nsamples = 1\nvalue = [1, 0]"] ;
100 -> 102 ;
103 [label="gini = 0.0\nsamples = 1\nvalue = [0, 1]"] ;
97 -> 103 ;
104 [label="gini = 0.0\nsamples = 1\nvalue = [0, 1]"] ;
82 -> 104 ;
105 [label="gini = 0.0\nsamples = 10\nvalue = [10, 0]"] ;
81 -> 105 ;
106 [label="X[1] <= 51.5\ngini = 0.5\nsamples = 2\nvalue = [1, 1]"] ;
80 -> 106 ;
107 [label="gini = 0.0\nsamples = 1\nvalue = [0, 1]"] ;
106 -> 107 ;
108 [label="gini = 0.0\nsamples = 1\nvalue = [1, 0]"] ;
106 -> 108 ;
109 [label="gini = 0.0\nsamples = 15\nvalue = [15, 0]"] ;
79 -> 109 ;
110 [label="gini = 0.0\nsamples = 22\nvalue = [22, 0]"] ;
78 -> 110 ;
111 [label="X[6] <= 0.5\ngini = 0.5\nsamples = 2\nvalue = [1, 1]"] ;
77 -> 111 ;
112 [label="gini = 0.0\nsamples = 1\nvalue = [1, 0]"] ;
111 -> 112 ;
113 [label="gini = 0.0\nsamples = 1\nvalue = [0, 1]"] ;
111 -> 113 ;
114 [label="gini = 0.0\nsamples = 25\nvalue = [25, 0]"] ;
76 -> 114 ;
115 [label="gini = 0.0\nsamples = 35\nvalue = [35, 0]"] ;
75 -> 115 ;
116 [label="X[7] <= 170.685\ngini = 0.32\nsamples = 5\nvalue = [4, 1]"] ;
74 -> 116 ;
117 [label="gini = 0.0\nsamples = 1\nvalue = [0, 1]"] ;
116 -> 117 ;
118 [label="gini = 0.0\nsamples = 4\nvalue = [4, 0]"] ;
116 -> 118 ;
119 [label="gini = 0.0\nsamples = 72\nvalue = [72, 0]"] ;
67 -> 119 ;
120 [label="X[7] <= 72.825\ngini = 0.5\nsamples = 2\nvalue = [1, 1]"] ;
32 -> 120 ;
121 [label="gini = 0.0\nsamples = 1\nvalue = [0, 1]"] ;
120 -> 121 ;
122 [label="gini = 0.0\nsamples = 1\nvalue = [1, 0]"] ;
120 -> 122 ;
123 [label="X[7] <= 64.58\ngini = 0.027\nsamples = 216\nvalue = [213, 3]"] ;
31 -> 123 ;
124 [label="X[7] <= 63.945\ngini = 0.133\nsamples = 14\nvalue = [13, 1]"] ;
123 -> 124 ;
125 [label="gini = 0.0\nsamples = 13\nvalue = [13, 0]"] ;
124 -> 125 ;
126 [label="gini = 0.0\nsamples = 1\nvalue = [0, 1]"] ;
124 -> 126 ;
127 [label="X[4] <= 0.5\ngini = 0.02\nsamples = 202\nvalue = [200, 2]"] ;
123 -> 127 ;
128 [label="X[6] <= 0.5\ngini = 0.124\nsamples = 15\nvalue = [14, 1]"] ;
127 -> 128 ;
129 [label="gini = 0.0\nsamples = 10\nvalue = [10, 0]"] ;
128 -> 129 ;
130 [label="X[7] <= 92.61\ngini = 0.32\nsamples = 5\nvalue = [4, 1]"] ;
128 -> 130 ;
131 [label="X[7] <= 85.615\ngini = 0.5\nsamples = 2\nvalue = [1, 1]"] ;
130 -> 131 ;
132 [label="gini = 0.0\nsamples = 1\nvalue = [1, 0]"] ;
131 -> 132 ;
133 [label="gini = 0.0\nsamples = 1\nvalue = [0, 1]"] ;
131 -> 133 ;
134 [label="gini = 0.0\nsamples = 3\nvalue = [3, 0]"] ;
130 -> 134 ;
135 [label="X[1] <= 47.5\ngini = 0.011\nsamples = 187\nvalue = [186, 1]"] ;
127 -> 135 ;
136 [label="X[8] <= 40.5\ngini = 0.056\nsamples = 35\nvalue = [34, 1]"] ;
135 -> 136 ;
137 [label="gini = 0.0\nsamples = 26\nvalue = [26, 0]"] ;
136 -> 137 ;
138 [label="X[8] <= 41.45\ngini = 0.198\nsamples = 9\nvalue = [8, 1]"] ;
136 -> 138 ;
139 [label="gini = 0.0\nsamples = 1\nvalue = [0, 1]"] ;
138 -> 139 ;
140 [label="gini = 0.0\nsamples = 8\nvalue = [8, 0]"] ;
138 -> 140 ;
141 [label="gini = 0.0\nsamples = 152\nvalue = [152, 0]"] ;
135 -> 141 ;
142 [label="X[1] <= 59.0\ngini = 0.198\nsamples = 45\nvalue = [40, 5]"] ;
30 -> 142 ;
143 [label="gini = 0.0\nsamples = 27\nvalue = [27, 0]"] ;
142 -> 143 ;
144 [label="X[1] <= 61.5\ngini = 0.401\nsamples = 18\nvalue = [13, 5]"] ;
142 -> 144 ;
145 [label="X[4] <= 0.5\ngini = 0.32\nsamples = 5\nvalue = [1, 4]"] ;
144 -> 145 ;
146 [label="gini = 0.0\nsamples = 1\nvalue = [1, 0]"] ;
145 -> 146 ;
147 [label="gini = 0.0\nsamples = 4\nvalue = [0, 4]"] ;
145 -> 147 ;
148 [label="X[5] <= 2.5\ngini = 0.142\nsamples = 13\nvalue = [12, 1]"] ;
144 -> 148 ;
149 [label="gini = 0.0\nsamples = 11\nvalue = [11, 0]"] ;
148 -> 149 ;
150 [label="X[7] <= 105.57\ngini = 0.5\nsamples = 2\nvalue = [1, 1]"] ;
148 -> 150 ;
151 [label="gini = 0.0\nsamples = 1\nvalue = [1, 0]"] ;
150 -> 151 ;
152 [label="gini = 0.0\nsamples = 1\nvalue = [0, 1]"] ;
150 -> 152 ;
153 [label="X[7] <= 179.395\ngini = 0.185\nsamples = 145\nvalue = [130, 15]"] ;
29 -> 153 ;
154 [label="gini = 0.0\nsamples = 1\nvalue = [0, 1]"] ;
153 -> 154 ;
155 [label="X[8] <= 34.45\ngini = 0.176\nsamples = 144\nvalue = [130, 14]"] ;
153 -> 155 ;
156 [label="X[1] <= 62.5\ngini = 0.06\nsamples = 65\nvalue = [63, 2]"] ;
155 -> 156 ;
157 [label="gini = 0.0\nsamples = 41\nvalue = [41, 0]"] ;
156 -> 157 ;
158 [label="X[1] <= 63.5\ngini = 0.153\nsamples = 24\nvalue = [22, 2]"] ;
156 -> 158 ;
159 [label="X[0] <= 0.5\ngini = 0.375\nsamples = 8\nvalue = [6, 2]"] ;
158 -> 159 ;
160 [label="gini = 0.0\nsamples = 3\nvalue = [3, 0]"] ;
159 -> 160 ;
161 [label="X[9] <= 0.5\ngini = 0.48\nsamples = 5\nvalue = [3, 2]"] ;
159 -> 161 ;
162 [label="gini = 0.0\nsamples = 2\nvalue = [2, 0]"] ;
161 -> 162 ;
163 [label="X[7] <= 203.895\ngini = 0.444\nsamples = 3\nvalue = [1, 2]"] ;
161 -> 163 ;
164 [label="gini = 0.0\nsamples = 1\nvalue = [1, 0]"] ;
163 -> 164 ;
165 [label="gini = 0.0\nsamples = 2\nvalue = [0, 2]"] ;
163 -> 165 ;
166 [label="gini = 0.0\nsamples = 16\nvalue = [16, 0]"] ;
158 -> 166 ;
167 [label="X[3] <= 0.5\ngini = 0.258\nsamples = 79\nvalue = [67, 12]"] ;
155 -> 167 ;
168 [label="X[7] <= 185.24\ngini = 0.216\nsamples = 73\nvalue = [64, 9]"] ;
167 -> 168 ;
169 [label="gini = 0.0\nsamples = 1\nvalue = [0, 1]"] ;
168 -> 169 ;
170 [label="X[8] <= 34.6\ngini = 0.198\nsamples = 72\nvalue = [64, 8]"] ;
168 -> 170 ;
171 [label="gini = 0.0\nsamples = 1\nvalue = [0, 1]"] ;
170 -> 171 ;
172 [label="X[1] <= 45.5\ngini = 0.178\nsamples = 71\nvalue = [64, 7]"] ;
170 -> 172 ;
173 [label="X[7] <= 221.1\ngini = 0.5\nsamples = 2\nvalue = [1, 1]"] ;
172 -> 173 ;
174 [label="gini = 0.0\nsamples = 1\nvalue = [1, 0]"] ;
173 -> 174 ;
175 [label="gini = 0.0\nsamples = 1\nvalue = [0, 1]"] ;
173 -> 175 ;
176 [label="X[7] <= 246.125\ngini = 0.159\nsamples = 69\nvalue = [63, 6]"] ;
172 -> 176 ;
177 [label="X[6] <= 0.5\ngini = 0.14\nsamples = 66\nvalue = [61, 5]"] ;
176 -> 177 ;
178 [label="X[5] <= 1.0\ngini = 0.053\nsamples = 37\nvalue = [36, 1]"] ;
177 -> 178 ;
179 [label="X[0] <= 0.5\ngini = 0.375\nsamples = 4\nvalue = [3, 1]"] ;
178 -> 179 ;
180 [label="gini = 0.0\nsamples = 1\nvalue = [0, 1]"] ;
179 -> 180 ;
181 [label="gini = 0.0\nsamples = 3\nvalue = [3, 0]"] ;
179 -> 181 ;
182 [label="gini = 0.0\nsamples = 33\nvalue = [33, 0]"] ;
178 -> 182 ;
183 [label="X[8] <= 44.0\ngini = 0.238\nsamples = 29\nvalue = [25, 4]"] ;
177 -> 183 ;
184 [label="X[8] <= 37.95\ngini = 0.147\nsamples = 25\nvalue = [23, 2]"] ;
183 -> 184 ;
185 [label="X[8] <= 37.05\ngini = 0.32\nsamples = 10\nvalue = [8, 2]"] ;
184 -> 185 ;
186 [label="X[7] <= 203.8\ngini = 0.198\nsamples = 9\nvalue = [8, 1]"] ;
185 -> 186 ;
187 [label="X[7] <= 195.66\ngini = 0.5\nsamples = 2\nvalue = [1, 1]"] ;
186 -> 187 ;
188 [label="gini = 0.0\nsamples = 1\nvalue = [1, 0]"] ;
187 -> 188 ;
189 [label="gini = 0.0\nsamples = 1\nvalue = [0, 1]"] ;
187 -> 189 ;
190 [label="gini = 0.0\nsamples = 7\nvalue = [7, 0]"] ;
186 -> 190 ;
191 [label="gini = 0.0\nsamples = 1\nvalue = [0, 1]"] ;
185 -> 191 ;
192 [label="gini = 0.0\nsamples = 15\nvalue = [15, 0]"] ;
184 -> 192 ;
193 [label="X[7] <= 209.305\ngini = 0.5\nsamples = 4\nvalue = [2, 2]"] ;
183 -> 193 ;
194 [label="gini = 0.0\nsamples = 2\nvalue = [2, 0]"] ;
193 -> 194 ;
195 [label="gini = 0.0\nsamples = 2\nvalue = [0, 2]"] ;
193 -> 195 ;
196 [label="X[0] <= 0.5\ngini = 0.444\nsamples = 3\nvalue = [2, 1]"] ;
176 -> 196 ;
197 [label="gini = 0.0\nsamples = 2\nvalue = [2, 0]"] ;
196 -> 197 ;
198 [label="gini = 0.0\nsamples = 1\nvalue = [0, 1]"] ;
196 -> 198 ;
199 [label="X[9] <= 1.5\ngini = 0.5\nsamples = 6\nvalue = [3, 3]"] ;
167 -> 199 ;
200 [label="X[7] <= 225.575\ngini = 0.375\nsamples = 4\nvalue = [3, 1]"] ;
199 -> 200 ;
201 [label="gini = 0.0\nsamples = 3\nvalue = [3, 0]"] ;
200 -> 201 ;
202 [label="gini = 0.0\nsamples = 1\nvalue = [0, 1]"] ;
200 -> 202 ;
203 [label="gini = 0.0\nsamples = 2\nvalue = [0, 2]"] ;
199 -> 203 ;
204 [label="X[7] <= 126.84\ngini = 0.277\nsamples = 451\nvalue = [376, 75]"] ;
0 -> 204 [labeldistance=2.5, labelangle=-45, headlabel="False"] ;
205 [label="X[1] <= 78.5\ngini = 0.212\nsamples = 298\nvalue = [262, 36]"] ;
204 -> 205 ;
206 [label="X[2] <= 0.5\ngini = 0.137\nsamples = 189\nvalue = [175, 14]"] ;
205 -> 206 ;
207 [label="X[9] <= 0.5\ngini = 0.091\nsamples = 147\nvalue = [140, 7]"] ;
206 -> 207 ;
208 [label="gini = 0.0\nsamples = 58\nvalue = [58, 0]"] ;
207 -> 208 ;
209 [label="X[4] <= 0.5\ngini = 0.145\nsamples = 89\nvalue = [82, 7]"] ;
207 -> 209 ;
210 [label="X[8] <= 28.0\ngini = 0.375\nsamples = 8\nvalue = [6, 2]"] ;
209 -> 210 ;
211 [label="gini = 0.0\nsamples = 2\nvalue = [0, 2]"] ;
210 -> 211 ;
212 [label="gini = 0.0\nsamples = 6\nvalue = [6, 0]"] ;
210 -> 212 ;
213 [label="X[8] <= 26.85\ngini = 0.116\nsamples = 81\nvalue = [76, 5]"] ;
209 -> 213 ;
214 [label="gini = 0.0\nsamples = 33\nvalue = [33, 0]"] ;
213 -> 214 ;
215 [label="X[8] <= 27.6\ngini = 0.187\nsamples = 48\nvalue = [43, 5]"] ;
213 -> 215 ;
216 [label="X[7] <= 76.09\ngini = 0.5\nsamples = 6\nvalue = [3, 3]"] ;
215 -> 216 ;
217 [label="gini = 0.0\nsamples = 2\nvalue = [2, 0]"] ;
216 -> 217 ;
218 [label="X[5] <= 1.0\ngini = 0.375\nsamples = 4\nvalue = [1, 3]"] ;
216 -> 218 ;
219 [label="gini = 0.0\nsamples = 1\nvalue = [1, 0]"] ;
218 -> 219 ;
220 [label="gini = 0.0\nsamples = 3\nvalue = [0, 3]"] ;
218 -> 220 ;
221 [label="X[1] <= 69.5\ngini = 0.091\nsamples = 42\nvalue = [40, 2]"] ;
215 -> 221 ;
222 [label="X[5] <= 1.0\ngini = 0.375\nsamples = 4\nvalue = [3, 1]"] ;
221 -> 222 ;
223 [label="gini = 0.0\nsamples = 1\nvalue = [0, 1]"] ;
222 -> 223 ;
224 [label="gini = 0.0\nsamples = 3\nvalue = [3, 0]"] ;
222 -> 224 ;
225 [label="X[9] <= 1.5\ngini = 0.051\nsamples = 38\nvalue = [37, 1]"] ;
221 -> 225 ;
226 [label="gini = 0.0\nsamples = 29\nvalue = [29, 0]"] ;
225 -> 226 ;
227 [label="X[1] <= 73.0\ngini = 0.198\nsamples = 9\nvalue = [8, 1]"] ;
225 -> 227 ;
228 [label="gini = 0.0\nsamples = 5\nvalue = [5, 0]"] ;
227 -> 228 ;
229 [label="X[1] <= 74.5\ngini = 0.375\nsamples = 4\nvalue = [3, 1]"] ;
227 -> 229 ;
230 [label="gini = 0.0\nsamples = 1\nvalue = [0, 1]"] ;
229 -> 230 ;
231 [label="gini = 0.0\nsamples = 3\nvalue = [3, 0]"] ;
229 -> 231 ;
232 [label="X[8] <= 25.75\ngini = 0.278\nsamples = 42\nvalue = [35, 7]"] ;
206 -> 232 ;
233 [label="X[8] <= 21.6\ngini = 0.5\nsamples = 8\nvalue = [4, 4]"] ;
232 -> 233 ;
234 [label="gini = 0.0\nsamples = 2\nvalue = [2, 0]"] ;
233 -> 234 ;
235 [label="X[7] <= 82.75\ngini = 0.444\nsamples = 6\nvalue = [2, 4]"] ;
233 -> 235 ;
236 [label="gini = 0.0\nsamples = 3\nvalue = [0, 3]"] ;
235 -> 236 ;
237 [label="X[1] <= 75.0\ngini = 0.444\nsamples = 3\nvalue = [2, 1]"] ;
235 -> 237 ;
238 [label="gini = 0.0\nsamples = 2\nvalue = [2, 0]"] ;
237 -> 238 ;
239 [label="gini = 0.0\nsamples = 1\nvalue = [0, 1]"] ;
237 -> 239 ;
240 [label="X[7] <= 121.47\ngini = 0.161\nsamples = 34\nvalue = [31, 3]"] ;
232 -> 240 ;
241 [label="X[1] <= 68.5\ngini = 0.114\nsamples = 33\nvalue = [31, 2]"] ;
240 -> 241 ;
242 [label="X[7] <= 87.805\ngini = 0.444\nsamples = 3\nvalue = [2, 1]"] ;
241 -> 242 ;
243 [label="gini = 0.0\nsamples = 1\nvalue = [0, 1]"] ;
242 -> 243 ;
244 [label="gini = 0.0\nsamples = 2\nvalue = [2, 0]"] ;
242 -> 244 ;
245 [label="X[8] <= 33.9\ngini = 0.064\nsamples = 30\nvalue = [29, 1]"] ;
241 -> 245 ;
246 [label="gini = 0.0\nsamples = 22\nvalue = [22, 0]"] ;
245 -> 246 ;
247 [label="X[8] <= 34.5\ngini = 0.219\nsamples = 8\nvalue = [7, 1]"] ;
245 -> 247 ;
248 [label="gini = 0.0\nsamples = 1\nvalue = [0, 1]"] ;
247 -> 248 ;
249 [label="gini = 0.0\nsamples = 7\nvalue = [7, 0]"] ;
247 -> 249 ;
250 [label="gini = 0.0\nsamples = 1\nvalue = [0, 1]"] ;
240 -> 250 ;
251 [label="X[8] <= 26.4\ngini = 0.322\nsamples = 109\nvalue = [87, 22]"] ;
205 -> 251 ;
252 [label="X[8] <= 21.45\ngini = 0.439\nsamples = 43\nvalue = [29, 14]"] ;
251 -> 252 ;
253 [label="X[8] <= 17.4\ngini = 0.198\nsamples = 9\nvalue = [8, 1]"] ;
252 -> 253 ;
254 [label="gini = 0.0\nsamples = 1\nvalue = [0, 1]"] ;
253 -> 254 ;
255 [label="gini = 0.0\nsamples = 8\nvalue = [8, 0]"] ;
253 -> 255 ;
256 [label="X[5] <= 1.0\ngini = 0.472\nsamples = 34\nvalue = [21, 13]"] ;
252 -> 256 ;
257 [label="X[8] <= 21.9\ngini = 0.375\nsamples = 4\nvalue = [1, 3]"] ;
256 -> 257 ;
258 [label="gini = 0.0\nsamples = 1\nvalue = [1, 0]"] ;
257 -> 258 ;
259 [label="gini = 0.0\nsamples = 3\nvalue = [0, 3]"] ;
257 -> 259 ;
260 [label="X[6] <= 0.5\ngini = 0.444\nsamples = 30\nvalue = [20, 10]"] ;
256 -> 260 ;
261 [label="X[7] <= 78.655\ngini = 0.5\nsamples = 12\nvalue = [6, 6]"] ;
260 -> 261 ;
262 [label="gini = 0.0\nsamples = 3\nvalue = [0, 3]"] ;
261 -> 262 ;
263 [label="X[8] <= 22.7\ngini = 0.444\nsamples = 9\nvalue = [6, 3]"] ;
261 -> 263 ;
264 [label="gini = 0.0\nsamples = 4\nvalue = [4, 0]"] ;
263 -> 264 ;
265 [label="X[7] <= 88.715\ngini = 0.48\nsamples = 5\nvalue = [2, 3]"] ;
263 -> 265 ;
266 [label="gini = 0.0\nsamples = 2\nvalue = [2, 0]"] ;
265 -> 266 ;
267 [label="gini = 0.0\nsamples = 3\nvalue = [0, 3]"] ;
265 -> 267 ;
268 [label="X[8] <= 21.8\ngini = 0.346\nsamples = 18\nvalue = [14, 4]"] ;
260 -> 268 ;
269 [label="gini = 0.0\nsamples = 1\nvalue = [0, 1]"] ;
268 -> 269 ;
270 [label="X[8] <= 26.15\ngini = 0.291\nsamples = 17\nvalue = [14, 3]"] ;
268 -> 270 ;
271 [label="X[7] <= 106.21\ngini = 0.219\nsamples = 16\nvalue = [14, 2]"] ;
270 -> 271 ;
272 [label="X[9] <= 1.5\ngini = 0.133\nsamples = 14\nvalue = [13, 1]"] ;
271 -> 272 ;
273 [label="gini = 0.0\nsamples = 10\nvalue = [10, 0]"] ;
272 -> 273 ;
274 [label="X[1] <= 79.5\ngini = 0.375\nsamples = 4\nvalue = [3, 1]"] ;
272 -> 274 ;
275 [label="gini = 0.0\nsamples = 2\nvalue = [2, 0]"] ;
274 -> 275 ;
276 [label="X[8] <= 24.25\ngini = 0.5\nsamples = 2\nvalue = [1, 1]"] ;
274 -> 276 ;
277 [label="gini = 0.0\nsamples = 1\nvalue = [0, 1]"] ;
276 -> 277 ;
278 [label="gini = 0.0\nsamples = 1\nvalue = [1, 0]"] ;
276 -> 278 ;
279 [label="X[1] <= 79.5\ngini = 0.5\nsamples = 2\nvalue = [1, 1]"] ;
271 -> 279 ;
280 [label="gini = 0.0\nsamples = 1\nvalue = [0, 1]"] ;
279 -> 280 ;
281 [label="gini = 0.0\nsamples = 1\nvalue = [1, 0]"] ;
279 -> 281 ;
282 [label="gini = 0.0\nsamples = 1\nvalue = [0, 1]"] ;
270 -> 282 ;
283 [label="X[8] <= 32.45\ngini = 0.213\nsamples = 66\nvalue = [58, 8]"] ;
251 -> 283 ;
284 [label="X[5] <= 2.5\ngini = 0.122\nsamples = 46\nvalue = [43, 3]"] ;
283 -> 284 ;
285 [label="X[7] <= 87.82\ngini = 0.219\nsamples = 24\nvalue = [21, 3]"] ;
284 -> 285 ;
286 [label="X[1] <= 81.5\ngini = 0.355\nsamples = 13\nvalue = [10, 3]"] ;
285 -> 286 ;
287 [label="X[7] <= 72.305\ngini = 0.278\nsamples = 12\nvalue = [10, 2]"] ;
286 -> 287 ;
288 [label="gini = 0.0\nsamples = 6\nvalue = [6, 0]"] ;
287 -> 288 ;
289 [label="X[6] <= 0.5\ngini = 0.444\nsamples = 6\nvalue = [4, 2]"] ;
287 -> 289 ;
290 [label="gini = 0.0\nsamples = 2\nvalue = [0, 2]"] ;
289 -> 290 ;
291 [label="gini = 0.0\nsamples = 4\nvalue = [4, 0]"] ;
289 -> 291 ;
292 [label="gini = 0.0\nsamples = 1\nvalue = [0, 1]"] ;
286 -> 292 ;
293 [label="gini = 0.0\nsamples = 11\nvalue = [11, 0]"] ;
285 -> 293 ;
294 [label="gini = 0.0\nsamples = 22\nvalue = [22, 0]"] ;
284 -> 294 ;
295 [label="X[8] <= 33.35\ngini = 0.375\nsamples = 20\nvalue = [15, 5]"] ;
283 -> 295 ;
296 [label="X[4] <= 0.5\ngini = 0.375\nsamples = 4\nvalue = [1, 3]"] ;
295 -> 296 ;
297 [label="gini = 0.0\nsamples = 1\nvalue = [1, 0]"] ;
296 -> 297 ;
298 [label="gini = 0.0\nsamples = 3\nvalue = [0, 3]"] ;
296 -> 298 ;
299 [label="X[8] <= 34.15\ngini = 0.219\nsamples = 16\nvalue = [14, 2]"] ;
295 -> 299 ;
300 [label="X[8] <= 33.9\ngini = 0.408\nsamples = 7\nvalue = [5, 2]"] ;
299 -> 300 ;
301 [label="X[7] <= 90.145\ngini = 0.278\nsamples = 6\nvalue = [5, 1]"] ;
300 -> 301 ;
302 [label="gini = 0.0\nsamples = 4\nvalue = [4, 0]"] ;
301 -> 302 ;
303 [label="X[6] <= 0.5\ngini = 0.5\nsamples = 2\nvalue = [1, 1]"] ;
301 -> 303 ;
304 [label="gini = 0.0\nsamples = 1\nvalue = [1, 0]"] ;
303 -> 304 ;
305 [label="gini = 0.0\nsamples = 1\nvalue = [0, 1]"] ;
303 -> 305 ;
306 [label="gini = 0.0\nsamples = 1\nvalue = [0, 1]"] ;
300 -> 306 ;
307 [label="gini = 0.0\nsamples = 9\nvalue = [9, 0]"] ;
299 -> 307 ;
308 [label="X[7] <= 138.33\ngini = 0.38\nsamples = 153\nvalue = [114, 39]"] ;
204 -> 308 ;
309 [label="X[1] <= 71.5\ngini = 0.278\nsamples = 6\nvalue = [1, 5]"] ;
308 -> 309 ;
310 [label="gini = 0.0\nsamples = 1\nvalue = [1, 0]"] ;
309 -> 310 ;
311 [label="gini = 0.0\nsamples = 5\nvalue = [0, 5]"] ;
309 -> 311 ;
312 [label="X[8] <= 44.55\ngini = 0.356\nsamples = 147\nvalue = [113, 34]"] ;
308 -> 312 ;
313 [label="X[7] <= 255.615\ngini = 0.344\nsamples = 145\nvalue = [113, 32]"] ;
312 -> 313 ;
314 [label="X[1] <= 68.5\ngini = 0.327\nsamples = 141\nvalue = [112, 29]"] ;
313 -> 314 ;
315 [label="X[8] <= 31.7\ngini = 0.5\nsamples = 8\nvalue = [4, 4]"] ;
314 -> 315 ;
316 [label="X[2] <= 0.5\ngini = 0.32\nsamples = 5\nvalue = [4, 1]"] ;
315 -> 316 ;
317 [label="gini = 0.0\nsamples = 4\nvalue = [4, 0]"] ;
316 -> 317 ;
318 [label="gini = 0.0\nsamples = 1\nvalue = [0, 1]"] ;
316 -> 318 ;
319 [label="gini = 0.0\nsamples = 3\nvalue = [0, 3]"] ;
315 -> 319 ;
320 [label="X[9] <= 0.5\ngini = 0.305\nsamples = 133\nvalue = [108, 25]"] ;
314 -> 320 ;
321 [label="X[8] <= 27.75\ngini = 0.185\nsamples = 58\nvalue = [52, 6]"] ;
320 -> 321 ;
322 [label="gini = 0.0\nsamples = 17\nvalue = [17, 0]"] ;
321 -> 322 ;
323 [label="X[8] <= 29.1\ngini = 0.25\nsamples = 41\nvalue = [35, 6]"] ;
321 -> 323 ;
324 [label="X[5] <= 2.5\ngini = 0.49\nsamples = 7\nvalue = [4, 3]"] ;
323 -> 324 ;
325 [label="gini = 0.0\nsamples = 2\nvalue = [0, 2]"] ;
324 -> 325 ;
326 [label="X[3] <= 0.5\ngini = 0.32\nsamples = 5\nvalue = [4, 1]"] ;
324 -> 326 ;
327 [label="X[1] <= 73.5\ngini = 0.5\nsamples = 2\nvalue = [1, 1]"] ;
326 -> 327 ;
328 [label="gini = 0.0\nsamples = 1\nvalue = [1, 0]"] ;
327 -> 328 ;
329 [label="gini = 0.0\nsamples = 1\nvalue = [0, 1]"] ;
327 -> 329 ;
330 [label="gini = 0.0\nsamples = 3\nvalue = [3, 0]"] ;
326 -> 330 ;
331 [label="X[7] <= 164.865\ngini = 0.161\nsamples = 34\nvalue = [31, 3]"] ;
323 -> 331 ;
332 [label="X[1] <= 75.5\ngini = 0.5\nsamples = 2\nvalue = [1, 1]"] ;
331 -> 332 ;
333 [label="gini = 0.0\nsamples = 1\nvalue = [1, 0]"] ;
332 -> 333 ;
334 [label="gini = 0.0\nsamples = 1\nvalue = [0, 1]"] ;
332 -> 334 ;
335 [label="X[7] <= 231.4\ngini = 0.117\nsamples = 32\nvalue = [30, 2]"] ;
331 -> 335 ;
336 [label="X[7] <= 195.895\ngini = 0.067\nsamples = 29\nvalue = [28, 1]"] ;
335 -> 336 ;
337 [label="X[7] <= 191.795\ngini = 0.278\nsamples = 6\nvalue = [5, 1]"] ;
336 -> 337 ;
338 [label="gini = 0.0\nsamples = 5\nvalue = [5, 0]"] ;
337 -> 338 ;
339 [label="gini = 0.0\nsamples = 1\nvalue = [0, 1]"] ;
337 -> 339 ;
340 [label="gini = 0.0\nsamples = 23\nvalue = [23, 0]"] ;
336 -> 340 ;
341 [label="X[0] <= 0.5\ngini = 0.444\nsamples = 3\nvalue = [2, 1]"] ;
335 -> 341 ;
342 [label="gini = 0.0\nsamples = 1\nvalue = [0, 1]"] ;
341 -> 342 ;
343 [label="gini = 0.0\nsamples = 2\nvalue = [2, 0]"] ;
341 -> 343 ;
344 [label="X[3] <= 0.5\ngini = 0.378\nsamples = 75\nvalue = [56, 19]"] ;
320 -> 344 ;
345 [label="X[7] <= 195.12\ngini = 0.324\nsamples = 59\nvalue = [47, 12]"] ;
344 -> 345 ;
346 [label="X[7] <= 168.035\ngini = 0.472\nsamples = 21\nvalue = [13, 8]"] ;
345 -> 346 ;
347 [label="gini = 0.0\nsamples = 7\nvalue = [7, 0]"] ;
346 -> 347 ;
348 [label="X[6] <= 0.5\ngini = 0.49\nsamples = 14\nvalue = [6, 8]"] ;
346 -> 348 ;
349 [label="X[1] <= 71.5\ngini = 0.219\nsamples = 8\nvalue = [1, 7]"] ;
348 -> 349 ;
350 [label="X[7] <= 184.97\ngini = 0.444\nsamples = 3\nvalue = [1, 2]"] ;
349 -> 350 ;
351 [label="gini = 0.0\nsamples = 1\nvalue = [0, 1]"] ;
350 -> 351 ;
352 [label="X[5] <= 1.0\ngini = 0.5\nsamples = 2\nvalue = [1, 1]"] ;
350 -> 352 ;
353 [label="gini = 0.0\nsamples = 1\nvalue = [0, 1]"] ;
352 -> 353 ;
354 [label="gini = 0.0\nsamples = 1\nvalue = [1, 0]"] ;
352 -> 354 ;
355 [label="gini = 0.0\nsamples = 5\nvalue = [0, 5]"] ;
349 -> 355 ;
356 [label="X[1] <= 74.5\ngini = 0.278\nsamples = 6\nvalue = [5, 1]"] ;
348 -> 356 ;
357 [label="gini = 0.0\nsamples = 1\nvalue = [0, 1]"] ;
356 -> 357 ;
358 [label="gini = 0.0\nsamples = 5\nvalue = [5, 0]"] ;
356 -> 358 ;
359 [label="X[6] <= 0.5\ngini = 0.188\nsamples = 38\nvalue = [34, 4]"] ;
345 -> 359 ;
360 [label="gini = 0.0\nsamples = 18\nvalue = [18, 0]"] ;
359 -> 360 ;
361 [label="X[2] <= 0.5\ngini = 0.32\nsamples = 20\nvalue = [16, 4]"] ;
359 -> 361 ;
362 [label="X[1] <= 78.5\ngini = 0.142\nsamples = 13\nvalue = [12, 1]"] ;
361 -> 362 ;
363 [label="gini = 0.0\nsamples = 8\nvalue = [8, 0]"] ;
362 -> 363 ;
364 [label="X[0] <= 0.5\ngini = 0.32\nsamples = 5\nvalue = [4, 1]"] ;
362 -> 364 ;
365 [label="X[1] <= 80.5\ngini = 0.5\nsamples = 2\nvalue = [1, 1]"] ;
364 -> 365 ;
366 [label="gini = 0.0\nsamples = 1\nvalue = [0, 1]"] ;
365 -> 366 ;
367 [label="gini = 0.0\nsamples = 1\nvalue = [1, 0]"] ;
365 -> 367 ;
368 [label="gini = 0.0\nsamples = 3\nvalue = [3, 0]"] ;
364 -> 368 ;
369 [label="X[8] <= 30.05\ngini = 0.49\nsamples = 7\nvalue = [4, 3]"] ;
361 -> 369 ;
370 [label="X[5] <= 2.5\ngini = 0.375\nsamples = 4\nvalue = [1, 3]"] ;
369 -> 370 ;
371 [label="gini = 0.0\nsamples = 3\nvalue = [0, 3]"] ;
370 -> 371 ;
372 [label="gini = 0.0\nsamples = 1\nvalue = [1, 0]"] ;
370 -> 372 ;
373 [label="gini = 0.0\nsamples = 3\nvalue = [3, 0]"] ;
369 -> 373 ;
374 [label="X[8] <= 32.75\ngini = 0.492\nsamples = 16\nvalue = [9, 7]"] ;
344 -> 374 ;
375 [label="X[8] <= 25.7\ngini = 0.486\nsamples = 12\nvalue = [5, 7]"] ;
374 -> 375 ;
376 [label="gini = 0.0\nsamples = 3\nvalue = [3, 0]"] ;
375 -> 376 ;
377 [label="X[1] <= 80.0\ngini = 0.346\nsamples = 9\nvalue = [2, 7]"] ;
375 -> 377 ;
378 [label="gini = 0.0\nsamples = 6\nvalue = [0, 6]"] ;
377 -> 378 ;
379 [label="X[9] <= 1.5\ngini = 0.444\nsamples = 3\nvalue = [2, 1]"] ;
377 -> 379 ;
380 [label="gini = 0.0\nsamples = 2\nvalue = [2, 0]"] ;
379 -> 380 ;
381 [label="gini = 0.0\nsamples = 1\nvalue = [0, 1]"] ;
379 -> 381 ;
382 [label="gini = 0.0\nsamples = 4\nvalue = [4, 0]"] ;
374 -> 382 ;
383 [label="X[5] <= 2.5\ngini = 0.375\nsamples = 4\nvalue = [1, 3]"] ;
313 -> 383 ;
384 [label="gini = 0.0\nsamples = 3\nvalue = [0, 3]"] ;
383 -> 384 ;
385 [label="gini = 0.0\nsamples = 1\nvalue = [1, 0]"] ;
383 -> 385 ;
386 [label="gini = 0.0\nsamples = 2\nvalue = [0, 2]"] ;
312 -> 386 ;
}