digraph Tree {
node [shape=box] ;
0 [label="X[1] <= 67.5\ngini = 0.103\nsamples = 2397\nvalue = [2267, 130]"] ;
1 [label="X[1] <= 53.5\ngini = 0.052\nsamples = 1933\nvalue = [1881, 52]"] ;
0 -> 1 [labeldistance=2.5, labelangle=45, headlabel="True"] ;
2 [label="X[1] <= 44.5\ngini = 0.023\nsamples = 1378\nvalue = [1362, 16]"] ;
1 -> 2 ;
3 [label="X[1] <= 37.5\ngini = 0.008\nsamples = 1009\nvalue = [1005, 4]"] ;
2 -> 3 ;
4 [label="X[9] <= 1.5\ngini = 0.003\nsamples = 734\nvalue = [733, 1]"] ;
3 -> 4 ;
5 [label="gini = 0.0\nsamples = 563\nvalue = [563, 0]"] ;
4 -> 5 ;
6 [label="X[7] <= 76.275\ngini = 0.012\nsamples = 171\nvalue = [170, 1]"] ;
4 -> 6 ;
7 [label="X[7] <= 75.815\ngini = 0.041\nsamples = 48\nvalue = [47, 1]"] ;
6 -> 7 ;
8 [label="gini = 0.0\nsamples = 47\nvalue = [47, 0]"] ;
7 -> 8 ;
9 [label="gini = 0.0\nsamples = 1\nvalue = [0, 1]"] ;
7 -> 9 ;
10 [label="gini = 0.0\nsamples = 123\nvalue = [123, 0]"] ;
6 -> 10 ;
11 [label="X[1] <= 39.5\ngini = 0.022\nsamples = 275\nvalue = [272, 3]"] ;
3 -> 11 ;
12 [label="X[5] <= 2.5\ngini = 0.075\nsamples = 77\nvalue = [74, 3]"] ;
11 -> 12 ;
13 [label="X[8] <= 26.35\ngini = 0.029\nsamples = 67\nvalue = [66, 1]"] ;
12 -> 13 ;
14 [label="X[8] <= 26.1\ngini = 0.142\nsamples = 13\nvalue = [12, 1]"] ;
13 -> 14 ;
15 [label="gini = 0.0\nsamples = 12\nvalue = [12, 0]"] ;
14 -> 15 ;
16 [label="gini = 0.0\nsamples = 1\nvalue = [0, 1]"] ;
14 -> 16 ;
17 [label="gini = 0.0\nsamples = 54\nvalue = [54, 0]"] ;
13 -> 17 ;
18 [label="X[0] <= 0.5\ngini = 0.32\nsamples = 10\nvalue = [8, 2]"] ;
12 -> 18 ;
19 [label="X[7] <= 82.565\ngini = 0.444\nsamples = 6\nvalue = [4, 2]"] ;
18 -> 19 ;
20 [label="gini = 0.0\nsamples = 1\nvalue = [0, 1]"] ;
19 -> 20 ;
21 [label="X[8] <= 28.4\ngini = 0.32\nsamples = 5\nvalue = [4, 1]"] ;
19 -> 21 ;
22 [label="gini = 0.0\nsamples = 3\nvalue = [3, 0]"] ;
21 -> 22 ;
23 [label="X[8] <= 34.8\ngini = 0.5\nsamples = 2\nvalue = [1, 1]"] ;
21 -> 23 ;
24 [label="gini = 0.0\nsamples = 1\nvalue = [0, 1]"] ;
23 -> 24 ;
25 [label="gini = 0.0\nsamples = 1\nvalue = [1, 0]"] ;
23 -> 25 ;
26 [label="gini = 0.0\nsamples = 4\nvalue = [4, 0]"] ;
18 -> 26 ;
27 [label="gini = 0.0\nsamples = 198\nvalue = [198, 0]"] ;
11 -> 27 ;
28 [label="X[7] <= 223.725\ngini = 0.063\nsamples = 369\nvalue = [357, 12]"] ;
2 -> 28 ;
29 [label="X[8] <= 20.55\ngini = 0.054\nsamples = 362\nvalue = [352, 10]"] ;
28 -> 29 ;
30 [label="X[8] <= 20.35\ngini = 0.219\nsamples = 8\nvalue = [7, 1]"] ;
29 -> 30 ;
31 [label="gini = 0.0\nsamples = 6\nvalue = [6, 0]"] ;
30 -> 31 ;
32 [label="X[1] <= 46.5\ngini = 0.5\nsamples = 2\nvalue = [1, 1]"] ;
30 -> 32 ;
33 [label="gini = 0.0\nsamples = 1\nvalue = [1, 0]"] ;
32 -> 33 ;
34 [label="gini = 0.0\nsamples = 1\nvalue = [0, 1]"] ;
32 -> 34 ;
35 [label="X[8] <= 27.25\ngini = 0.05\nsamples = 354\nvalue = [345, 9]"] ;
29 -> 35 ;
36 [label="gini = 0.0\nsamples = 101\nvalue = [101, 0]"] ;
35 -> 36 ;
37 [label="X[8] <= 27.35\ngini = 0.069\nsamples = 253\nvalue = [244, 9]"] ;
35 -> 37 ;
38 [label="X[6] <= 0.5\ngini = 0.32\nsamples = 5\nvalue = [4, 1]"] ;
37 -> 38 ;
39 [label="gini = 0.0\nsamples = 1\nvalue = [0, 1]"] ;
38 -> 39 ;
40 [label="gini = 0.0\nsamples = 4\nvalue = [4, 0]"] ;
38 -> 40 ;
41 [label="X[4] <= 0.5\ngini = 0.062\nsamples = 248\nvalue = [240, 8]"] ;
37 -> 41 ;
42 [label="X[8] <= 32.0\ngini = 0.219\nsamples = 16\nvalue = [14, 2]"] ;
41 -> 42 ;
43 [label="X[7] <= 86.335\ngini = 0.375\nsamples = 8\nvalue = [6, 2]"] ;
42 -> 43 ;
44 [label="gini = 0.0\nsamples = 1\nvalue = [0, 1]"] ;
43 -> 44 ;
45 [label="X[8] <= 31.75\ngini = 0.245\nsamples = 7\nvalue = [6, 1]"] ;
43 -> 45 ;
46 [label="gini = 0.0\nsamples = 6\nvalue = [6, 0]"] ;
45 -> 46 ;
47 [label="gini = 0.0\nsamples = 1\nvalue = [0, 1]"] ;
45 -> 47 ;
48 [label="gini = 0.0\nsamples = 8\nvalue = [8, 0]"] ;
42 -> 48 ;
49 [label="X[7] <= 64.285\ngini = 0.05\nsamples = 232\nvalue = [226, 6]"] ;
41 -> 49 ;
50 [label="X[7] <= 63.96\ngini = 0.188\nsamples = 19\nvalue = [17, 2]"] ;
49 -> 50 ;
51 [label="gini = 0.0\nsamples = 17\nvalue = [17, 0]"] ;
50 -> 51 ;
52 [label="gini = 0.0\nsamples = 2\nvalue = [0, 2]"] ;
50 -> 52 ;
53 [label="X[9] <= 0.5\ngini = 0.037\nsamples = 213\nvalue = [209, 4]"] ;
49 -> 53 ;
54 [label="X[8] <= 30.35\ngini = 0.109\nsamples = 52\nvalue = [49, 3]"] ;
53 -> 54 ;
55 [label="X[8] <= 30.15\ngini = 0.278\nsamples = 12\nvalue = [10, 2]"] ;
54 -> 55 ;
56 [label="gini = 0.0\nsamples = 9\nvalue = [9, 0]"] ;
55 -> 56 ;
57 [label="X[6] <= 0.5\ngini = 0.444\nsamples = 3\nvalue = [1, 2]"] ;
55 -> 57 ;
58 [label="gini = 0.0\nsamples = 2\nvalue = [0, 2]"] ;
57 -> 58 ;
59 [label="gini = 0.0\nsamples = 1\nvalue = [1, 0]"] ;
57 -> 59 ;
60 [label="X[1] <= 47.5\ngini = 0.049\nsamples = 40\nvalue = [39, 1]"] ;
54 -> 60 ;
61 [label="X[8] <= 39.95\ngini = 0.198\nsamples = 9\nvalue = [8, 1]"] ;
60 -> 61 ;
62 [label="gini = 0.0\nsamples = 6\nvalue = [6, 0]"] ;
61 -> 62 ;
63 [label="X[0] <= 0.5\ngini = 0.444\nsamples = 3\nvalue = [2, 1]"] ;
61 -> 63 ;
64 [label="gini = 0.0\nsamples = 2\nvalue = [2, 0]"] ;
63 -> 64 ;
65 [label="gini = 0.0\nsamples = 1\nvalue = [0, 1]"] ;
63 -> 65 ;
66 [label="gini = 0.0\nsamples = 31\nvalue = [31, 0]"] ;
60 -> 66 ;
67 [label="X[7] <= 165.31\ngini = 0.012\nsamples = 161\nvalue = [160, 1]"] ;
53 -> 67 ;
68 [label="gini = 0.0\nsamples = 141\nvalue = [141, 0]"] ;
67 -> 68 ;
69 [label="X[7] <= 172.565\ngini = 0.095\nsamples = 20\nvalue = [19, 1]"] ;
67 -> 69 ;
70 [label="gini = 0.0\nsamples = 1\nvalue = [0, 1]"] ;
69 -> 70 ;
71 [label="gini = 0.0\nsamples = 19\nvalue = [19, 0]"] ;
69 -> 71 ;
72 [label="X[8] <= 47.05\ngini = 0.408\nsamples = 7\nvalue = [5, 2]"] ;
28 -> 72 ;
73 [label="gini = 0.0\nsamples = 5\nvalue = [5, 0]"] ;
72 -> 73 ;
74 [label="gini = 0.0\nsamples = 2\nvalue = [0, 2]"] ;
72 -> 74 ;
75 [label="X[3] <= 0.5\ngini = 0.121\nsamples = 555\nvalue = [519, 36]"] ;
1 -> 75 ;
76 [label="X[7] <= 115.93\ngini = 0.1\nsamples = 510\nvalue = [483, 27]"] ;
75 -> 76 ;
77 [label="X[8] <= 30.05\ngini = 0.073\nsamples = 371\nvalue = [357, 14]"] ;
76 -> 77 ;
78 [label="X[1] <= 54.5\ngini = 0.103\nsamples = 203\nvalue = [192, 11]"] ;
77 -> 78 ;
79 [label="X[9] <= 1.5\ngini = 0.305\nsamples = 16\nvalue = [13, 3]"] ;
78 -> 79 ;
80 [label="X[8] <= 28.3\ngini = 0.142\nsamples = 13\nvalue = [12, 1]"] ;
79 -> 80 ;
81 [label="gini = 0.0\nsamples = 9\nvalue = [9, 0]"] ;
80 -> 81 ;
82 [label="X[7] <= 81.07\ngini = 0.375\nsamples = 4\nvalue = [3, 1]"] ;
80 -> 82 ;
83 [label="gini = 0.0\nsamples = 1\nvalue = [0, 1]"] ;
82 -> 83 ;
84 [label="gini = 0.0\nsamples = 3\nvalue = [3, 0]"] ;
82 -> 84 ;
85 [label="X[7] <= 86.505\ngini = 0.444\nsamples = 3\nvalue = [1, 2]"] ;
79 -> 85 ;
86 [label="gini = 0.0\nsamples = 1\nvalue = [1, 0]"] ;
85 -> 86 ;
87 [label="gini = 0.0\nsamples = 2\nvalue = [0, 2]"] ;
85 -> 87 ;
88 [label="X[2] <= 0.5\ngini = 0.082\nsamples = 187\nvalue = [179, 8]"] ;
78 -> 88 ;
89 [label="X[8] <= 29.95\ngini = 0.059\nsamples = 164\nvalue = [159, 5]"] ;
88 -> 89 ;
90 [label="X[7] <= 59.865\ngini = 0.049\nsamples = 159\nvalue = [155, 4]"] ;
89 -> 90 ;
91 [label="X[7] <= 59.77\ngini = 0.219\nsamples = 8\nvalue = [7, 1]"] ;
90 -> 91 ;
92 [label="gini = 0.0\nsamples = 7\nvalue = [7, 0]"] ;
91 -> 92 ;
93 [label="gini = 0.0\nsamples = 1\nvalue = [0, 1]"] ;
91 -> 93 ;
94 [label="X[7] <= 92.84\ngini = 0.039\nsamples = 151\nvalue = [148, 3]"] ;
90 -> 94 ;
95 [label="gini = 0.0\nsamples = 88\nvalue = [88, 0]"] ;
94 -> 95 ;
96 [label="X[7] <= 93.11\ngini = 0.091\nsamples = 63\nvalue = [60, 3]"] ;
94 -> 96 ;
97 [label="gini = 0.0\nsamples = 1\nvalue = [0, 1]"] ;
96 -> 97 ;
98 [label="X[7] <= 101.085\ngini = 0.062\nsamples = 62\nvalue = [60, 2]"] ;
96 -> 98 ;
99 [label="X[7] <= 100.905\ngini = 0.128\nsamples = 29\nvalue = [27, 2]"] ;
98 -> 99 ;
100 [label="X[9] <= 1.5\ngini = 0.069\nsamples = 28\nvalue = [27, 1]"] ;
99 -> 100 ;
101 [label="gini = 0.0\nsamples = 18\nvalue = [18, 0]"] ;
100 -> 101 ;
102 [label="X[7] <= 97.235\ngini = 0.18\nsamples = 10\nvalue = [9, 1]"] ;
100 -> 102 ;
103 [label="gini = 0.0\nsamples = 7\nvalue = [7, 0]"] ;
102 -> 103 ;
104 [label="X[7] <= 98.295\ngini = 0.444\nsamples = 3\nvalue = [2, 1]"] ;
102 -> 104 ;
105 [label="gini = 0.0\nsamples = 1\nvalue = [0, 1]"] ;
104 -> 105 ;
106 [label="gini = 0.0\nsamples = 2\nvalue = [2, 0]"] ;
104 -> 106 ;
107 [label="gini = 0.0\nsamples = 1\nvalue = [0, 1]"] ;
99 -> 107 ;
108 [label="gini = 0.0\nsamples = 33\nvalue = [33, 0]"] ;
98 -> 108 ;
109 [label="X[9] <= 0.5\ngini = 0.32\nsamples = 5\nvalue = [4, 1]"] ;
89 -> 109 ;
110 [label="gini = 0.0\nsamples = 1\nvalue = [0, 1]"] ;
109 -> 110 ;
111 [label="gini = 0.0\nsamples = 4\nvalue = [4, 0]"] ;
109 -> 111 ;
112 [label="X[1] <= 66.5\ngini = 0.227\nsamples = 23\nvalue = [20, 3]"] ;
88 -> 112 ;
113 [label="X[7] <= 80.68\ngini = 0.165\nsamples = 22\nvalue = [20, 2]"] ;
112 -> 113 ;
114 [label="X[7] <= 74.45\ngini = 0.375\nsamples = 8\nvalue = [6, 2]"] ;
113 -> 114 ;
115 [label="gini = 0.0\nsamples = 6\nvalue = [6, 0]"] ;
114 -> 115 ;
116 [label="gini = 0.0\nsamples = 2\nvalue = [0, 2]"] ;
114 -> 116 ;
117 [label="gini = 0.0\nsamples = 14\nvalue = [14, 0]"] ;
113 -> 117 ;
118 [label="gini = 0.0\nsamples = 1\nvalue = [0, 1]"] ;
112 -> 118 ;
119 [label="X[7] <= 106.955\ngini = 0.035\nsamples = 168\nvalue = [165, 3]"] ;
77 -> 119 ;
120 [label="X[4] <= 0.5\ngini = 0.025\nsamples = 155\nvalue = [153, 2]"] ;
119 -> 120 ;
121 [label="X[7] <= 87.775\ngini = 0.142\nsamples = 13\nvalue = [12, 1]"] ;
120 -> 121 ;
122 [label="gini = 0.0\nsamples = 10\nvalue = [10, 0]"] ;
121 -> 122 ;
123 [label="X[9] <= 1.5\ngini = 0.444\nsamples = 3\nvalue = [2, 1]"] ;
121 -> 123 ;
124 [label="gini = 0.0\nsamples = 1\nvalue = [0, 1]"] ;
123 -> 124 ;
125 [label="gini = 0.0\nsamples = 2\nvalue = [2, 0]"] ;
123 -> 125 ;
126 [label="X[5] <= 1.0\ngini = 0.014\nsamples = 142\nvalue = [141, 1]"] ;
120 -> 126 ;
127 [label="X[7] <= 68.725\ngini = 0.08\nsamples = 24\nvalue = [23, 1]"] ;
126 -> 127 ;
128 [label="X[8] <= 33.95\ngini = 0.444\nsamples = 3\nvalue = [2, 1]"] ;
127 -> 128 ;
129 [label="gini = 0.0\nsamples = 1\nvalue = [0, 1]"] ;
128 -> 129 ;
130 [label="gini = 0.0\nsamples = 2\nvalue = [2, 0]"] ;
128 -> 130 ;
131 [label="gini = 0.0\nsamples = 21\nvalue = [21, 0]"] ;
127 -> 131 ;
132 [label="gini = 0.0\nsamples = 118\nvalue = [118, 0]"] ;
126 -> 132 ;
133 [label="X[7] <= 107.8\ngini = 0.142\nsamples = 13\nvalue = [12, 1]"] ;
119 -> 133 ;
134 [label="gini = 0.0\nsamples = 1\nvalue = [0, 1]"] ;
133 -> 134 ;
135 [label="gini = 0.0\nsamples = 12\nvalue = [12, 0]"] ;
133 -> 135 ;
136 [label="X[7] <= 118.27\ngini = 0.17\nsamples = 139\nvalue = [126, 13]"] ;
76 -> 136 ;
137 [label="X[9] <= 1.5\ngini = 0.5\nsamples = 6\nvalue = [3, 3]"] ;
136 -> 137 ;
138 [label="X[1] <= 64.0\ngini = 0.375\nsamples = 4\nvalue = [3, 1]"] ;
137 -> 138 ;
139 [label="gini = 0.0\nsamples = 3\nvalue = [3, 0]"] ;
138 -> 139 ;
140 [label="gini = 0.0\nsamples = 1\nvalue = [0, 1]"] ;
138 -> 140 ;
141 [label="gini = 0.0\nsamples = 2\nvalue = [0, 2]"] ;
137 -> 141 ;
142 [label="X[9] <= 0.5\ngini = 0.139\nsamples = 133\nvalue = [123, 10]"] ;
136 -> 142 ;
143 [label="X[7] <= 207.635\ngini = 0.234\nsamples = 37\nvalue = [32, 5]"] ;
142 -> 143 ;
144 [label="X[8] <= 45.1\ngini = 0.351\nsamples = 22\nvalue = [17, 5]"] ;
143 -> 144 ;
145 [label="X[1] <= 66.5\ngini = 0.308\nsamples = 21\nvalue = [17, 4]"] ;
144 -> 145 ;
146 [label="X[0] <= 0.5\ngini = 0.255\nsamples = 20\nvalue = [17, 3]"] ;
145 -> 146 ;
147 [label="gini = 0.0\nsamples = 9\nvalue = [9, 0]"] ;
146 -> 147 ;
148 [label="X[8] <= 31.1\ngini = 0.397\nsamples = 11\nvalue = [8, 3]"] ;
146 -> 148 ;
149 [label="gini = 0.0\nsamples = 4\nvalue = [4, 0]"] ;
148 -> 149 ;
150 [label="X[7] <= 132.35\ngini = 0.49\nsamples = 7\nvalue = [4, 3]"] ;
148 -> 150 ;
151 [label="gini = 0.0\nsamples = 2\nvalue = [2, 0]"] ;
150 -> 151 ;
152 [label="X[7] <= 202.215\ngini = 0.48\nsamples = 5\nvalue = [2, 3]"] ;
150 -> 152 ;
153 [label="gini = 0.0\nsamples = 3\nvalue = [0, 3]"] ;
152 -> 153 ;
154 [label="gini = 0.0\nsamples = 2\nvalue = [2, 0]"] ;
152 -> 154 ;
155 [label="gini = 0.0\nsamples = 1\nvalue = [0, 1]"] ;
145 -> 155 ;
156 [label="gini = 0.0\nsamples = 1\nvalue = [0, 1]"] ;
144 -> 156 ;
157 [label="gini = 0.0\nsamples = 15\nvalue = [15, 0]"] ;
143 -> 157 ;
158 [label="X[1] <= 54.5\ngini = 0.099\nsamples = 96\nvalue = [91, 5]"] ;
142 -> 158 ;
159 [label="X[2] <= 0.5\ngini = 0.32\nsamples = 10\nvalue = [8, 2]"] ;
158 -> 159 ;
160 [label="X[5] <= 2.5\ngini = 0.198\nsamples = 9\nvalue = [8, 1]"] ;
159 -> 160 ;
161 [label="gini = 0.0\nsamples = 8\nvalue = [8, 0]"] ;
160 -> 161 ;
162 [label="gini = 0.0\nsamples = 1\nvalue = [0, 1]"] ;
160 -> 162 ;
163 [label="gini = 0.0\nsamples = 1\nvalue = [0, 1]"] ;
159 -> 163 ;
164 [label="X[7] <= 208.245\ngini = 0.067\nsamples = 86\nvalue = [83, 3]"] ;
158 -> 164 ;
165 [label="gini = 0.0\nsamples = 60\nvalue = [60, 0]"] ;
164 -> 165 ;
166 [label="X[7] <= 209.885\ngini = 0.204\nsamples = 26\nvalue = [23, 3]"] ;
164 -> 166 ;
167 [label="gini = 0.0\nsamples = 1\nvalue = [0, 1]"] ;
166 -> 167 ;
168 [label="X[1] <= 58.0\ngini = 0.147\nsamples = 25\nvalue = [23, 2]"] ;
166 -> 168 ;
169 [label="X[7] <= 246.805\ngini = 0.298\nsamples = 11\nvalue = [9, 2]"] ;
168 -> 169 ;
170 [label="X[9] <= 1.5\ngini = 0.18\nsamples = 10\nvalue = [9, 1]"] ;
169 -> 170 ;
171 [label="gini = 0.0\nsamples = 7\nvalue = [7, 0]"] ;
170 -> 171 ;
172 [label="X[7] <= 218.905\ngini = 0.444\nsamples = 3\nvalue = [2, 1]"] ;
170 -> 172 ;
173 [label="gini = 0.0\nsamples = 1\nvalue = [1, 0]"] ;
172 -> 173 ;
174 [label="X[7] <= 222.245\ngini = 0.5\nsamples = 2\nvalue = [1, 1]"] ;
172 -> 174 ;
175 [label="gini = 0.0\nsamples = 1\nvalue = [0, 1]"] ;
174 -> 175 ;
176 [label="gini = 0.0\nsamples = 1\nvalue = [1, 0]"] ;
174 -> 176 ;
177 [label="gini = 0.0\nsamples = 1\nvalue = [0, 1]"] ;
169 -> 177 ;
178 [label="gini = 0.0\nsamples = 14\nvalue = [14, 0]"] ;
168 -> 178 ;
179 [label="X[8] <= 35.6\ngini = 0.32\nsamples = 45\nvalue = [36, 9]"] ;
75 -> 179 ;
180 [label="X[7] <= 110.75\ngini = 0.157\nsamples = 35\nvalue = [32, 3]"] ;
179 -> 180 ;
181 [label="gini = 0.0\nsamples = 18\nvalue = [18, 0]"] ;
180 -> 181 ;
182 [label="X[7] <= 112.09\ngini = 0.291\nsamples = 17\nvalue = [14, 3]"] ;
180 -> 182 ;
183 [label="gini = 0.0\nsamples = 1\nvalue = [0, 1]"] ;
182 -> 183 ;
184 [label="X[8] <= 31.2\ngini = 0.219\nsamples = 16\nvalue = [14, 2]"] ;
182 -> 184 ;
185 [label="gini = 0.0\nsamples = 10\nvalue = [10, 0]"] ;
184 -> 185 ;
186 [label="X[8] <= 32.2\ngini = 0.444\nsamples = 6\nvalue = [4, 2]"] ;
184 -> 186 ;
187 [label="gini = 0.0\nsamples = 1\nvalue = [0, 1]"] ;
186 -> 187 ;
188 [label="X[7] <= 120.32\ngini = 0.32\nsamples = 5\nvalue = [4, 1]"] ;
186 -> 188 ;
189 [label="gini = 0.0\nsamples = 1\nvalue = [0, 1]"] ;
188 -> 189 ;
190 [label="gini = 0.0\nsamples = 4\nvalue = [4, 0]"] ;
188 -> 190 ;
191 [label="X[9] <= 1.5\ngini = 0.48\nsamples = 10\nvalue = [4, 6]"] ;
179 -> 191 ;
192 [label="X[8] <= 36.8\ngini = 0.32\nsamples = 5\nvalue = [4, 1]"] ;
191 -> 192 ;
193 [label="gini = 0.0\nsamples = 1\nvalue = [0, 1]"] ;
192 -> 193 ;
194 [label="gini = 0.0\nsamples = 4\nvalue = [4, 0]"] ;
192 -> 194 ;
195 [label="gini = 0.0\nsamples = 5\nvalue = [0, 5]"] ;
191 -> 195 ;
196 [label="X[1] <= 78.5\ngini = 0.28\nsamples = 464\nvalue = [386, 78]"] ;
0 -> 196 [labeldistance=2.5, labelangle=-45, headlabel="False"] ;
197 [label="X[7] <= 231.52\ngini = 0.216\nsamples = 317\nvalue = [278, 39]"] ;
196 -> 197 ;
198 [label="X[4] <= 0.5\ngini = 0.192\nsamples = 297\nvalue = [265, 32]"] ;
197 -> 198 ;
199 [label="X[1] <= 69.5\ngini = 0.403\nsamples = 25\nvalue = [18, 7]"] ;
198 -> 199 ;
200 [label="X[2] <= 0.5\ngini = 0.49\nsamples = 7\nvalue = [3, 4]"] ;
199 -> 200 ;
201 [label="X[8] <= 27.1\ngini = 0.375\nsamples = 4\nvalue = [3, 1]"] ;
200 -> 201 ;
202 [label="gini = 0.0\nsamples = 1\nvalue = [0, 1]"] ;
201 -> 202 ;
203 [label="gini = 0.0\nsamples = 3\nvalue = [3, 0]"] ;
201 -> 203 ;
204 [label="gini = 0.0\nsamples = 3\nvalue = [0, 3]"] ;
200 -> 204 ;
205 [label="X[7] <= 202.815\ngini = 0.278\nsamples = 18\nvalue = [15, 3]"] ;
199 -> 205 ;
206 [label="X[8] <= 20.75\ngini = 0.208\nsamples = 17\nvalue = [15, 2]"] ;
205 -> 206 ;
207 [label="gini = 0.0\nsamples = 1\nvalue = [0, 1]"] ;
206 -> 207 ;
208 [label="X[8] <= 28.0\ngini = 0.117\nsamples = 16\nvalue = [15, 1]"] ;
206 -> 208 ;
209 [label="X[0] <= 0.5\ngini = 0.32\nsamples = 5\nvalue = [4, 1]"] ;
208 -> 209 ;
210 [label="gini = 0.0\nsamples = 4\nvalue = [4, 0]"] ;
209 -> 210 ;
211 [label="gini = 0.0\nsamples = 1\nvalue = [0, 1]"] ;
209 -> 211 ;
212 [label="gini = 0.0\nsamples = 11\nvalue = [11, 0]"] ;
208 -> 212 ;
213 [label="gini = 0.0\nsamples = 1\nvalue = [0, 1]"] ;
205 -> 213 ;
214 [label="X[8] <= 46.3\ngini = 0.167\nsamples = 272\nvalue = [247, 25]"] ;
198 -> 214 ;
215 [label="X[1] <= 71.5\ngini = 0.162\nsamples = 270\nvalue = [246, 24]"] ;
214 -> 215 ;
216 [label="X[8] <= 28.35\ngini = 0.079\nsamples = 97\nvalue = [93, 4]"] ;
215 -> 216 ;
217 [label="X[8] <= 27.15\ngini = 0.176\nsamples = 41\nvalue = [37, 4]"] ;
216 -> 217 ;
218 [label="gini = 0.0\nsamples = 29\nvalue = [29, 0]"] ;
217 -> 218 ;
219 [label="X[7] <= 102.755\ngini = 0.444\nsamples = 12\nvalue = [8, 4]"] ;
217 -> 219 ;
220 [label="X[9] <= 1.5\ngini = 0.32\nsamples = 10\nvalue = [8, 2]"] ;
219 -> 220 ;
221 [label="X[5] <= 1.0\ngini = 0.198\nsamples = 9\nvalue = [8, 1]"] ;
220 -> 221 ;
222 [label="X[1] <= 69.5\ngini = 0.5\nsamples = 2\nvalue = [1, 1]"] ;
221 -> 222 ;
223 [label="gini = 0.0\nsamples = 1\nvalue = [0, 1]"] ;
222 -> 223 ;
224 [label="gini = 0.0\nsamples = 1\nvalue = [1, 0]"] ;
222 -> 224 ;
225 [label="gini = 0.0\nsamples = 7\nvalue = [7, 0]"] ;
221 -> 225 ;
226 [label="gini = 0.0\nsamples = 1\nvalue = [0, 1]"] ;
220 -> 226 ;
227 [label="gini = 0.0\nsamples = 2\nvalue = [0, 2]"] ;
219 -> 227 ;
228 [label="gini = 0.0\nsamples = 56\nvalue = [56, 0]"] ;
216 -> 228 ;
229 [label="X[3] <= 0.5\ngini = 0.204\nsamples = 173\nvalue = [153, 20]"] ;
215 -> 229 ;
230 [label="X[2] <= 0.5\ngini = 0.239\nsamples = 144\nvalue = [124, 20]"] ;
229 -> 230 ;
231 [label="X[8] <= 29.85\ngini = 0.185\nsamples = 116\nvalue = [104, 12]"] ;
230 -> 231 ;
232 [label="X[7] <= 78.79\ngini = 0.105\nsamples = 72\nvalue = [68, 4]"] ;
231 -> 232 ;
233 [label="X[7] <= 74.83\ngini = 0.291\nsamples = 17\nvalue = [14, 3]"] ;
232 -> 233 ;
234 [label="X[8] <= 24.7\ngini = 0.133\nsamples = 14\nvalue = [13, 1]"] ;
233 -> 234 ;
235 [label="X[1] <= 77.5\ngini = 0.375\nsamples = 4\nvalue = [3, 1]"] ;
234 -> 235 ;
236 [label="gini = 0.0\nsamples = 3\nvalue = [3, 0]"] ;
235 -> 236 ;
237 [label="gini = 0.0\nsamples = 1\nvalue = [0, 1]"] ;
235 -> 237 ;
238 [label="gini = 0.0\nsamples = 10\nvalue = [10, 0]"] ;
234 -> 238 ;
239 [label="X[0] <= 0.5\ngini = 0.444\nsamples = 3\nvalue = [1, 2]"] ;
233 -> 239 ;
240 [label="gini = 0.0\nsamples = 1\nvalue = [0, 1]"] ;
239 -> 240 ;
241 [label="X[1] <= 76.5\ngini = 0.5\nsamples = 2\nvalue = [1, 1]"] ;
239 -> 241 ;
242 [label="gini = 0.0\nsamples = 1\nvalue = [1, 0]"] ;
241 -> 242 ;
243 [label="gini = 0.0\nsamples = 1\nvalue = [0, 1]"] ;
241 -> 243 ;
244 [label="X[1] <= 72.5\ngini = 0.036\nsamples = 55\nvalue = [54, 1]"] ;
232 -> 244 ;
245 [label="X[8] <= 27.65\ngini = 0.32\nsamples = 5\nvalue = [4, 1]"] ;
244 -> 245 ;
246 [label="gini = 0.0\nsamples = 4\nvalue = [4, 0]"] ;
245 -> 246 ;
247 [label="gini = 0.0\nsamples = 1\nvalue = [0, 1]"] ;
245 -> 247 ;
248 [label="gini = 0.0\nsamples = 50\nvalue = [50, 0]"] ;
244 -> 248 ;
249 [label="X[8] <= 34.55\ngini = 0.298\nsamples = 44\nvalue = [36, 8]"] ;
231 -> 249 ;
250 [label="X[9] <= 1.5\ngini = 0.408\nsamples = 28\nvalue = [20, 8]"] ;
249 -> 250 ;
251 [label="X[7] <= 215.25\ngini = 0.384\nsamples = 27\nvalue = [20, 7]"] ;
250 -> 251 ;
252 [label="X[8] <= 30.0\ngini = 0.355\nsamples = 26\nvalue = [20, 6]"] ;
251 -> 252 ;
253 [label="gini = 0.0\nsamples = 1\nvalue = [0, 1]"] ;
252 -> 253 ;
254 [label="X[1] <= 76.5\ngini = 0.32\nsamples = 25\nvalue = [20, 5]"] ;
252 -> 254 ;
255 [label="X[8] <= 33.95\ngini = 0.124\nsamples = 15\nvalue = [14, 1]"] ;
254 -> 255 ;
256 [label="gini = 0.0\nsamples = 13\nvalue = [13, 0]"] ;
255 -> 256 ;
257 [label="X[7] <= 68.63\ngini = 0.5\nsamples = 2\nvalue = [1, 1]"] ;
255 -> 257 ;
258 [label="gini = 0.0\nsamples = 1\nvalue = [1, 0]"] ;
257 -> 258 ;
259 [label="gini = 0.0\nsamples = 1\nvalue = [0, 1]"] ;
257 -> 259 ;
260 [label="X[7] <= 98.09\ngini = 0.48\nsamples = 10\nvalue = [6, 4]"] ;
254 -> 260 ;
261 [label="X[9] <= 0.5\ngini = 0.32\nsamples = 5\nvalue = [4, 1]"] ;
260 -> 261 ;
262 [label="gini = 0.0\nsamples = 3\nvalue = [3, 0]"] ;
261 -> 262 ;
263 [label="X[6] <= 0.5\ngini = 0.5\nsamples = 2\nvalue = [1, 1]"] ;
261 -> 263 ;
264 [label="gini = 0.0\nsamples = 1\nvalue = [0, 1]"] ;
263 -> 264 ;
265 [label="gini = 0.0\nsamples = 1\nvalue = [1, 0]"] ;
263 -> 265 ;
266 [label="X[7] <= 114.25\ngini = 0.48\nsamples = 5\nvalue = [2, 3]"] ;
260 -> 266 ;
267 [label="gini = 0.0\nsamples = 3\nvalue = [0, 3]"] ;
266 -> 267 ;
268 [label="gini = 0.0\nsamples = 2\nvalue = [2, 0]"] ;
266 -> 268 ;
269 [label="gini = 0.0\nsamples = 1\nvalue = [0, 1]"] ;
251 -> 269 ;
270 [label="gini = 0.0\nsamples = 1\nvalue = [0, 1]"] ;
250 -> 270 ;
271 [label="gini = 0.0\nsamples = 16\nvalue = [16, 0]"] ;
249 -> 271 ;
272 [label="X[8] <= 25.95\ngini = 0.408\nsamples = 28\nvalue = [20, 8]"] ;
230 -> 272 ;
273 [label="X[1] <= 75.5\ngini = 0.444\nsamples = 6\nvalue = [2, 4]"] ;
272 -> 273 ;
274 [label="gini = 0.0\nsamples = 3\nvalue = [0, 3]"] ;
273 -> 274 ;
275 [label="X[6] <= 0.5\ngini = 0.444\nsamples = 3\nvalue = [2, 1]"] ;
273 -> 275 ;
276 [label="gini = 0.0\nsamples = 1\nvalue = [0, 1]"] ;
275 -> 276 ;
277 [label="gini = 0.0\nsamples = 2\nvalue = [2, 0]"] ;
275 -> 277 ;
278 [label="X[7] <= 183.845\ngini = 0.298\nsamples = 22\nvalue = [18, 4]"] ;
272 -> 278 ;
279 [label="gini = 0.0\nsamples = 14\nvalue = [14, 0]"] ;
278 -> 279 ;
280 [label="X[1] <= 74.0\ngini = 0.5\nsamples = 8\nvalue = [4, 4]"] ;
278 -> 280 ;
281 [label="gini = 0.0\nsamples = 3\nvalue = [0, 3]"] ;
280 -> 281 ;
282 [label="X[7] <= 195.715\ngini = 0.32\nsamples = 5\nvalue = [4, 1]"] ;
280 -> 282 ;
283 [label="gini = 0.0\nsamples = 1\nvalue = [0, 1]"] ;
282 -> 283 ;
284 [label="gini = 0.0\nsamples = 4\nvalue = [4, 0]"] ;
282 -> 284 ;
285 [label="gini = 0.0\nsamples = 29\nvalue = [29, 0]"] ;
229 -> 285 ;
286 [label="X[2] <= 0.5\ngini = 0.5\nsamples = 2\nvalue = [1, 1]"] ;
214 -> 286 ;
287 [label="gini = 0.0\nsamples = 1\nvalue = [0, 1]"] ;
286 -> 287 ;
288 [label="gini = 0.0\nsamples = 1\nvalue = [1, 0]"] ;
286 -> 288 ;
289 [label="X[8] <= 30.85\ngini = 0.455\nsamples = 20\nvalue = [13, 7]"] ;
197 -> 289 ;
290 [label="gini = 0.0\nsamples = 10\nvalue = [10, 0]"] ;
289 -> 290 ;
291 [label="X[8] <= 43.15\ngini = 0.42\nsamples = 10\nvalue = [3, 7]"] ;
289 -> 291 ;
292 [label="X[1] <= 75.0\ngini = 0.346\nsamples = 9\nvalue = [2, 7]"] ;
291 -> 292 ;
293 [label="gini = 0.0\nsamples = 5\nvalue = [0, 5]"] ;
292 -> 293 ;
294 [label="X[9] <= 0.5\ngini = 0.5\nsamples = 4\nvalue = [2, 2]"] ;
292 -> 294 ;
295 [label="gini = 0.0\nsamples = 1\nvalue = [1, 0]"] ;
294 -> 295 ;
296 [label="X[7] <= 247.19\ngini = 0.444\nsamples = 3\nvalue = [1, 2]"] ;
294 -> 296 ;
297 [label="gini = 0.0\nsamples = 2\nvalue = [0, 2]"] ;
296 -> 297 ;
298 [label="gini = 0.0\nsamples = 1\nvalue = [1, 0]"] ;
296 -> 298 ;
299 [label="gini = 0.0\nsamples = 1\nvalue = [1, 0]"] ;
291 -> 299 ;
300 [label="X[5] <= 2.5\ngini = 0.39\nsamples = 147\nvalue = [108, 39]"] ;
196 -> 300 ;
301 [label="X[7] <= 239.805\ngini = 0.442\nsamples = 85\nvalue = [57, 28]"] ;
300 -> 301 ;
302 [label="X[3] <= 0.5\ngini = 0.43\nsamples = 83\nvalue = [57, 26]"] ;
301 -> 302 ;
303 [label="X[7] <= 204.27\ngini = 0.375\nsamples = 56\nvalue = [42, 14]"] ;
302 -> 303 ;
304 [label="X[7] <= 177.445\ngini = 0.413\nsamples = 48\nvalue = [34, 14]"] ;
303 -> 304 ;
305 [label="X[4] <= 0.5\ngini = 0.386\nsamples = 46\nvalue = [34, 12]"] ;
304 -> 305 ;
306 [label="X[1] <= 80.5\ngini = 0.49\nsamples = 7\nvalue = [3, 4]"] ;
305 -> 306 ;
307 [label="gini = 0.0\nsamples = 3\nvalue = [0, 3]"] ;
306 -> 307 ;
308 [label="X[5] <= 1.0\ngini = 0.375\nsamples = 4\nvalue = [3, 1]"] ;
306 -> 308 ;
309 [label="gini = 0.0\nsamples = 1\nvalue = [0, 1]"] ;
308 -> 309 ;
310 [label="gini = 0.0\nsamples = 3\nvalue = [3, 0]"] ;
308 -> 310 ;
311 [label="X[8] <= 40.2\ngini = 0.326\nsamples = 39\nvalue = [31, 8]"] ;
305 -> 311 ;
312 [label="X[6] <= 0.5\ngini = 0.301\nsamples = 38\nvalue = [31, 7]"] ;
311 -> 312 ;
313 [label="X[1] <= 81.5\ngini = 0.401\nsamples = 18\nvalue = [13, 5]"] ;
312 -> 313 ;
314 [label="X[2] <= 0.5\ngini = 0.32\nsamples = 15\nvalue = [12, 3]"] ;
313 -> 314 ;
315 [label="X[7] <= 93.005\ngini = 0.165\nsamples = 11\nvalue = [10, 1]"] ;
314 -> 315 ;
316 [label="gini = 0.0\nsamples = 8\nvalue = [8, 0]"] ;
315 -> 316 ;
317 [label="X[7] <= 94.005\ngini = 0.444\nsamples = 3\nvalue = [2, 1]"] ;
315 -> 317 ;
318 [label="gini = 0.0\nsamples = 1\nvalue = [0, 1]"] ;
317 -> 318 ;
319 [label="gini = 0.0\nsamples = 2\nvalue = [2, 0]"] ;
317 -> 319 ;
320 [label="X[7] <= 89.95\ngini = 0.5\nsamples = 4\nvalue = [2, 2]"] ;
314 -> 320 ;
321 [label="gini = 0.0\nsamples = 2\nvalue = [0, 2]"] ;
320 -> 321 ;
322 [label="gini = 0.0\nsamples = 2\nvalue = [2, 0]"] ;
320 -> 322 ;
323 [label="X[8] <= 24.95\ngini = 0.444\nsamples = 3\nvalue = [1, 2]"] ;
313 -> 323 ;
324 [label="gini = 0.0\nsamples = 1\nvalue = [1, 0]"] ;
323 -> 324 ;
325 [label="gini = 0.0\nsamples = 2\nvalue = [0, 2]"] ;
323 -> 325 ;
326 [label="X[7] <= 96.575\ngini = 0.18\nsamples = 20\nvalue = [18, 2]"] ;
312 -> 326 ;
327 [label="X[0] <= 0.5\ngini = 0.111\nsamples = 17\nvalue = [16, 1]"] ;
326 -> 327 ;
328 [label="gini = 0.0\nsamples = 14\nvalue = [14, 0]"] ;
327 -> 328 ;
329 [label="X[7] <= 75.795\ngini = 0.444\nsamples = 3\nvalue = [2, 1]"] ;
327 -> 329 ;
330 [label="gini = 0.0\nsamples = 1\nvalue = [0, 1]"] ;
329 -> 330 ;
331 [label="gini = 0.0\nsamples = 2\nvalue = [2, 0]"] ;
329 -> 331 ;
332 [label="X[1] <= 79.5\ngini = 0.444\nsamples = 3\nvalue = [2, 1]"] ;
326 -> 332 ;
333 [label="gini = 0.0\nsamples = 1\nvalue = [0, 1]"] ;
332 -> 333 ;
334 [label="gini = 0.0\nsamples = 2\nvalue = [2, 0]"] ;
332 -> 334 ;
335 [label="gini = 0.0\nsamples = 1\nvalue = [0, 1]"] ;
311 -> 335 ;
336 [label="gini = 0.0\nsamples = 2\nvalue = [0, 2]"] ;
304 -> 336 ;
337 [label="gini = 0.0\nsamples = 8\nvalue = [8, 0]"] ;
303 -> 337 ;
338 [label="X[7] <= 102.24\ngini = 0.494\nsamples = 27\nvalue = [15, 12]"] ;
302 -> 338 ;
339 [label="X[4] <= 0.5\ngini = 0.298\nsamples = 11\nvalue = [9, 2]"] ;
338 -> 339 ;
340 [label="gini = 0.0\nsamples = 1\nvalue = [0, 1]"] ;
339 -> 340 ;
341 [label="X[9] <= 1.5\ngini = 0.18\nsamples = 10\nvalue = [9, 1]"] ;
339 -> 341 ;
342 [label="gini = 0.0\nsamples = 7\nvalue = [7, 0]"] ;
341 -> 342 ;
343 [label="X[6] <= 0.5\ngini = 0.444\nsamples = 3\nvalue = [2, 1]"] ;
341 -> 343 ;
344 [label="gini = 0.0\nsamples = 2\nvalue = [2, 0]"] ;
343 -> 344 ;
345 [label="gini = 0.0\nsamples = 1\nvalue = [0, 1]"] ;
343 -> 345 ;
346 [label="X[6] <= 0.5\ngini = 0.469\nsamples = 16\nvalue = [6, 10]"] ;
338 -> 346 ;
347 [label="X[7] <= 155.605\ngini = 0.494\nsamples = 9\nvalue = [5, 4]"] ;
346 -> 347 ;
348 [label="X[9] <= 1.5\ngini = 0.444\nsamples = 6\nvalue = [2, 4]"] ;
347 -> 348 ;
349 [label="gini = 0.0\nsamples = 4\nvalue = [0, 4]"] ;
348 -> 349 ;
350 [label="gini = 0.0\nsamples = 2\nvalue = [2, 0]"] ;
348 -> 350 ;
351 [label="gini = 0.0\nsamples = 3\nvalue = [3, 0]"] ;
347 -> 351 ;
352 [label="X[8] <= 25.65\ngini = 0.245\nsamples = 7\nvalue = [1, 6]"] ;
346 -> 352 ;
353 [label="gini = 0.0\nsamples = 1\nvalue = [1, 0]"] ;
352 -> 353 ;
354 [label="gini = 0.0\nsamples = 6\nvalue = [0, 6]"] ;
352 -> 354 ;
355 [label="gini = 0.0\nsamples = 2\nvalue = [0, 2]"] ;
301 -> 355 ;
356 [label="X[8] <= 17.6\ngini = 0.292\nsamples = 62\nvalue = [51, 11]"] ;
300 -> 356 ;
357 [label="gini = 0.0\nsamples = 1\nvalue = [0, 1]"] ;
356 -> 357 ;
358 [label="X[9] <= 0.5\ngini = 0.274\nsamples = 61\nvalue = [51, 10]"] ;
356 -> 358 ;
359 [label="X[8] <= 32.0\ngini = 0.091\nsamples = 21\nvalue = [20, 1]"] ;
358 -> 359 ;
360 [label="gini = 0.0\nsamples = 17\nvalue = [17, 0]"] ;
359 -> 360 ;
361 [label="X[2] <= 0.5\ngini = 0.375\nsamples = 4\nvalue = [3, 1]"] ;
359 -> 361 ;
362 [label="gini = 0.0\nsamples = 3\nvalue = [3, 0]"] ;
361 -> 362 ;
363 [label="gini = 0.0\nsamples = 1\nvalue = [0, 1]"] ;
361 -> 363 ;
364 [label="X[3] <= 0.5\ngini = 0.349\nsamples = 40\nvalue = [31, 9]"] ;
358 -> 364 ;
365 [label="X[8] <= 34.15\ngini = 0.404\nsamples = 32\nvalue = [23, 9]"] ;
364 -> 365 ;
366 [label="X[4] <= 0.5\ngini = 0.453\nsamples = 26\nvalue = [17, 9]"] ;
365 -> 366 ;
367 [label="gini = 0.0\nsamples = 6\nvalue = [6, 0]"] ;
366 -> 367 ;
368 [label="X[7] <= 230.41\ngini = 0.495\nsamples = 20\nvalue = [11, 9]"] ;
366 -> 368 ;
369 [label="X[8] <= 23.6\ngini = 0.492\nsamples = 16\nvalue = [7, 9]"] ;
368 -> 369 ;
370 [label="gini = 0.0\nsamples = 2\nvalue = [0, 2]"] ;
369 -> 370 ;
371 [label="X[8] <= 23.9\ngini = 0.5\nsamples = 14\nvalue = [7, 7]"] ;
369 -> 371 ;
372 [label="gini = 0.0\nsamples = 2\nvalue = [2, 0]"] ;
371 -> 372 ;
373 [label="X[1] <= 81.5\ngini = 0.486\nsamples = 12\nvalue = [5, 7]"] ;
371 -> 373 ;
374 [label="X[8] <= 25.7\ngini = 0.42\nsamples = 10\nvalue = [3, 7]"] ;
373 -> 374 ;
375 [label="gini = 0.0\nsamples = 2\nvalue = [0, 2]"] ;
374 -> 375 ;
376 [label="X[8] <= 26.5\ngini = 0.469\nsamples = 8\nvalue = [3, 5]"] ;
374 -> 376 ;
377 [label="gini = 0.0\nsamples = 1\nvalue = [1, 0]"] ;
376 -> 377 ;
378 [label="X[7] <= 87.62\ngini = 0.408\nsamples = 7\nvalue = [2, 5]"] ;
376 -> 378 ;
379 [label="X[8] <= 28.8\ngini = 0.5\nsamples = 4\nvalue = [2, 2]"] ;
378 -> 379 ;
380 [label="gini = 0.0\nsamples = 1\nvalue = [1, 0]"] ;
379 -> 380 ;
381 [label="X[7] <= 73.27\ngini = 0.444\nsamples = 3\nvalue = [1, 2]"] ;
379 -> 381 ;
382 [label="gini = 0.0\nsamples = 1\nvalue = [0, 1]"] ;
381 -> 382 ;
383 [label="X[7] <= 75.22\ngini = 0.5\nsamples = 2\nvalue = [1, 1]"] ;
381 -> 383 ;
384 [label="gini = 0.0\nsamples = 1\nvalue = [1, 0]"] ;
383 -> 384 ;
385 [label="gini = 0.0\nsamples = 1\nvalue = [0, 1]"] ;
383 -> 385 ;
386 [label="gini = 0.0\nsamples = 3\nvalue = [0, 3]"] ;
378 -> 386 ;
387 [label="gini = 0.0\nsamples = 2\nvalue = [2, 0]"] ;
373 -> 387 ;
388 [label="gini = 0.0\nsamples = 4\nvalue = [4, 0]"] ;
368 -> 388 ;
389 [label="gini = 0.0\nsamples = 6\nvalue = [6, 0]"] ;
365 -> 389 ;
390 [label="gini = 0.0\nsamples = 8\nvalue = [8, 0]"] ;
364 -> 390 ;
}